digraph Tree {
node [shape=box, fontname="helvetica"] ;
edge [fontname="helvetica"] ;
0 [label="Maximum Wind <= 62.5\ngini = 0.709\nsamples = 18295\nvalue = [150, 103, 84, 4730, 1, 1291, 4, 3, 6, 5, 4881\n7037]"] ;
1 [label="Maximum Wind <= 32.5\ngini = 0.591\nsamples = 13544\nvalue = [150, 98, 75, 0, 0, 1291, 4, 3, 6, 0, 4881, 7036]"] ;
0 -> 1 [labeldistance=2.5, labelangle=45, headlabel="True"] ;
2 [label="High Wind SE <= -499.5\ngini = 0.386\nsamples = 6438\nvalue = [150, 80, 53, 0, 0, 1269, 2, 3, 0, 0, 4881, 0]"] ;
1 -> 2 ;
3 [label="Maximum Wind <= 22.5\ngini = 0.098\nsamples = 4331\nvalue = [0, 80, 40, 0, 0, 101, 0, 0, 0, 0, 4110, 0]"] ;
2 -> 3 ;
4 [label="Minimum Pressure <= 3.5\ngini = 0.464\nsamples = 226\nvalue = [0, 7, 5, 0, 0, 60, 0, 0, 0, 0, 154, 0]"] ;
3 -> 4 ;
5 [label="Maximum Wind <= 12.5\ngini = 0.309\nsamples = 106\nvalue = [0, 7, 0, 0, 0, 12, 0, 0, 0, 0, 87, 0]"] ;
4 -> 5 ;
6 [label="gini = 0.0\nsamples = 5\nvalue = [0, 0, 0, 0, 0, 5, 0, 0, 0, 0, 0, 0]"] ;
5 -> 6 ;
7 [label="Maximum Wind <= 17.5\ngini = 0.248\nsamples = 101\nvalue = [0, 7, 0, 0, 0, 7, 0, 0, 0, 0, 87, 0]"] ;
5 -> 7 ;
8 [label="gini = 0.245\nsamples = 7\nvalue = [0, 1, 0, 0, 0, 0, 0, 0, 0, 0, 6, 0]"] ;
7 -> 8 ;
9 [label="gini = 0.248\nsamples = 94\nvalue = [0, 6, 0, 0, 0, 7, 0, 0, 0, 0, 81, 0]"] ;
7 -> 9 ;
10 [label="Minimum Pressure <= 1009.5\ngini = 0.527\nsamples = 120\nvalue = [0, 0, 5, 0, 0, 48, 0, 0, 0, 0, 67, 0]"] ;
4 -> 10 ;
11 [label="Minimum Pressure <= 1008.5\ngini = 0.486\nsamples = 48\nvalue = [0, 0, 0, 0, 0, 28, 0, 0, 0, 0, 20, 0]"] ;
10 -> 11 ;
12 [label="Minimum Pressure <= 1006.5\ngini = 0.499\nsamples = 23\nvalue = [0, 0, 0, 0, 0, 11, 0, 0, 0, 0, 12, 0]"] ;
11 -> 12 ;
13 [label="gini = 0.48\nsamples = 5\nvalue = [0, 0, 0, 0, 0, 3, 0, 0, 0, 0, 2, 0]"] ;
12 -> 13 ;
14 [label="Minimum Pressure <= 1007.5\ngini = 0.494\nsamples = 18\nvalue = [0, 0, 0, 0, 0, 8, 0, 0, 0, 0, 10, 0]"] ;
12 -> 14 ;
15 [label="gini = 0.444\nsamples = 6\nvalue = [0, 0, 0, 0, 0, 2, 0, 0, 0, 0, 4, 0]"] ;
14 -> 15 ;
16 [label="gini = 0.5\nsamples = 12\nvalue = [0, 0, 0, 0, 0, 6, 0, 0, 0, 0, 6, 0]"] ;
14 -> 16 ;
17 [label="gini = 0.435\nsamples = 25\nvalue = [0, 0, 0, 0, 0, 17, 0, 0, 0, 0, 8, 0]"] ;
11 -> 17 ;
18 [label="Maximum Wind <= 17.5\ngini = 0.492\nsamples = 72\nvalue = [0, 0, 5, 0, 0, 20, 0, 0, 0, 0, 47, 0]"] ;
10 -> 18 ;
19 [label="Minimum Pressure <= 1012.5\ngini = 0.42\nsamples = 10\nvalue = [0, 0, 0, 0, 0, 7, 0, 0, 0, 0, 3, 0]"] ;
18 -> 19 ;
20 [label="Minimum Pressure <= 1011.5\ngini = 0.5\nsamples = 6\nvalue = [0, 0, 0, 0, 0, 3, 0, 0, 0, 0, 3, 0]"] ;
19 -> 20 ;
21 [label="gini = 0.0\nsamples = 1\nvalue = [0, 0, 0, 0, 0, 0, 0, 0, 0, 0, 1, 0]"] ;
20 -> 21 ;
22 [label="gini = 0.48\nsamples = 5\nvalue = [0, 0, 0, 0, 0, 3, 0, 0, 0, 0, 2, 0]"] ;
20 -> 22 ;
23 [label="gini = 0.0\nsamples = 4\nvalue = [0, 0, 0, 0, 0, 4, 0, 0, 0, 0, 0, 0]"] ;
19 -> 23 ;
24 [label="Minimum Pressure <= 1010.5\ngini = 0.446\nsamples = 62\nvalue = [0, 0, 5, 0, 0, 13, 0, 0, 0, 0, 44, 0]"] ;
18 -> 24 ;
25 [label="gini = 0.552\nsamples = 23\nvalue = [0, 0, 2, 0, 0, 8, 0, 0, 0, 0, 13, 0]"] ;
24 -> 25 ;
26 [label="Minimum Pressure <= 1013.5\ngini = 0.346\nsamples = 39\nvalue = [0, 0, 3, 0, 0, 5, 0, 0, 0, 0, 31, 0]"] ;
24 -> 26 ;
27 [label="Minimum Pressure <= 1012.5\ngini = 0.279\nsamples = 31\nvalue = [0, 0, 1, 0, 0, 4, 0, 0, 0, 0, 26, 0]"] ;
26 -> 27 ;
28 [label="Minimum Pressure <= 1011.5\ngini = 0.344\nsamples = 24\nvalue = [0, 0, 1, 0, 0, 4, 0, 0, 0, 0, 19, 0]"] ;
27 -> 28 ;
29 [label="gini = 0.337\nsamples = 14\nvalue = [0, 0, 0, 0, 0, 3, 0, 0, 0, 0, 11, 0]"] ;
28 -> 29 ;
30 [label="gini = 0.34\nsamples = 10\nvalue = [0, 0, 1, 0, 0, 1, 0, 0, 0, 0, 8, 0]"] ;
28 -> 30 ;
31 [label="gini = 0.0\nsamples = 7\nvalue = [0, 0, 0, 0, 0, 0, 0, 0, 0, 0, 7, 0]"] ;
27 -> 31 ;
32 [label="Minimum Pressure <= 1014.5\ngini = 0.531\nsamples = 8\nvalue = [0, 0, 2, 0, 0, 1, 0, 0, 0, 0, 5, 0]"] ;
26 -> 32 ;
33 [label="gini = 0.611\nsamples = 6\nvalue = [0, 0, 2, 0, 0, 1, 0, 0, 0, 0, 3, 0]"] ;
32 -> 33 ;
34 [label="gini = 0.0\nsamples = 2\nvalue = [0, 0, 0, 0, 0, 0, 0, 0, 0, 0, 2, 0]"] ;
32 -> 34 ;
35 [label="Minimum Pressure <= 1015.0\ngini = 0.071\nsamples = 4105\nvalue = [0, 73, 35, 0, 0, 41, 0, 0, 0, 0, 3956, 0]"] ;
3 -> 35 ;
36 [label="Maximum Wind <= 27.5\ngini = 0.069\nsamples = 4101\nvalue = [0, 73, 32, 0, 0, 41, 0, 0, 0, 0, 3955, 0]"] ;
35 -> 36 ;
37 [label="Minimum Pressure <= 1004.5\ngini = 0.107\nsamples = 2150\nvalue = [0, 65, 18, 0, 0, 37, 0, 0, 0, 0, 2030, 0]"] ;
36 -> 37 ;
38 [label="Minimum Pressure <= -2.5\ngini = 0.097\nsamples = 1497\nvalue = [0, 65, 10, 0, 0, 1, 0, 0, 0, 0, 1421, 0]"] ;
37 -> 38 ;
39 [label="gini = 0.1\nsamples = 1453\nvalue = [0, 65, 10, 0, 0, 1, 0, 0, 0, 0, 1377, 0]"] ;
38 -> 39 ;
40 [label="gini = 0.0\nsamples = 44\nvalue = [0, 0, 0, 0, 0, 0, 0, 0, 0, 0, 44, 0]"] ;
38 -> 40 ;
41 [label="Minimum Pressure <= 1008.5\ngini = 0.127\nsamples = 653\nvalue = [0, 0, 8, 0, 0, 36, 0, 0, 0, 0, 609, 0]"] ;
37 -> 41 ;
42 [label="Minimum Pressure <= 1006.5\ngini = 0.237\nsamples = 217\nvalue = [0, 0, 5, 0, 0, 24, 0, 0, 0, 0, 188, 0]"] ;
41 -> 42 ;
43 [label="Minimum Pressure <= 1005.5\ngini = 0.265\nsamples = 67\nvalue = [0, 0, 5, 0, 0, 5, 0, 0, 0, 0, 57, 0]"] ;
42 -> 43 ;
44 [label="gini = 0.328\nsamples = 26\nvalue = [0, 0, 3, 0, 0, 2, 0, 0, 0, 0, 21, 0]"] ;
43 -> 44 ;
45 [label="gini = 0.221\nsamples = 41\nvalue = [0, 0, 2, 0, 0, 3, 0, 0, 0, 0, 36, 0]"] ;
43 -> 45 ;
46 [label="Minimum Pressure <= 1007.5\ngini = 0.221\nsamples = 150\nvalue = [0, 0, 0, 0, 0, 19, 0, 0, 0, 0, 131, 0]"] ;
42 -> 46 ;
47 [label="gini = 0.266\nsamples = 76\nvalue = [0, 0, 0, 0, 0, 12, 0, 0, 0, 0, 64, 0]"] ;
46 -> 47 ;
48 [label="gini = 0.171\nsamples = 74\nvalue = [0, 0, 0, 0, 0, 7, 0, 0, 0, 0, 67, 0]"] ;
46 -> 48 ;
49 [label="Minimum Pressure <= 1009.5\ngini = 0.067\nsamples = 436\nvalue = [0, 0, 3, 0, 0, 12, 0, 0, 0, 0, 421, 0]"] ;
41 -> 49 ;
50 [label="gini = 0.093\nsamples = 205\nvalue = [0, 0, 1, 0, 0, 9, 0, 0, 0, 0, 195, 0]"] ;
49 -> 50 ;
51 [label="Minimum Pressure <= 1011.5\ngini = 0.043\nsamples = 231\nvalue = [0, 0, 2, 0, 0, 3, 0, 0, 0, 0, 226, 0]"] ;
49 -> 51 ;
52 [label="Minimum Pressure <= 1010.5\ngini = 0.021\nsamples = 188\nvalue = [0, 0, 1, 0, 0, 1, 0, 0, 0, 0, 186, 0]"] ;
51 -> 52 ;
53 [label="gini = 0.029\nsamples = 135\nvalue = [0, 0, 1, 0, 0, 1, 0, 0, 0, 0, 133, 0]"] ;
52 -> 53 ;
54 [label="gini = 0.0\nsamples = 53\nvalue = [0, 0, 0, 0, 0, 0, 0, 0, 0, 0, 53, 0]"] ;
52 -> 54 ;
55 [label="Minimum Pressure <= 1012.5\ngini = 0.132\nsamples = 43\nvalue = [0, 0, 1, 0, 0, 2, 0, 0, 0, 0, 40, 0]"] ;
51 -> 55 ;
56 [label="gini = 0.184\nsamples = 30\nvalue = [0, 0, 1, 0, 0, 2, 0, 0, 0, 0, 27, 0]"] ;
55 -> 56 ;
57 [label="gini = 0.0\nsamples = 13\nvalue = [0, 0, 0, 0, 0, 0, 0, 0, 0, 0, 13, 0]"] ;
55 -> 57 ;
58 [label="Minimum Pressure <= 1010.5\ngini = 0.026\nsamples = 1951\nvalue = [0, 8, 14, 0, 0, 4, 0, 0, 0, 0, 1925, 0]"] ;
36 -> 58 ;
59 [label="Minimum Pressure <= 1009.5\ngini = 0.022\nsamples = 1932\nvalue = [0, 8, 13, 0, 0, 0, 0, 0, 0, 0, 1911, 0]"] ;
58 -> 59 ;
60 [label="Minimum Pressure <= 1001.5\ngini = 0.02\nsamples = 1889\nvalue = [0, 8, 11, 0, 0, 0, 0, 0, 0, 0, 1870, 0]"] ;
59 -> 60 ;
61 [label="Minimum Pressure <= -5.5\ngini = 0.017\nsamples = 1137\nvalue = [0, 8, 2, 0, 0, 0, 0, 0, 0, 0, 1127, 0]"] ;
60 -> 61 ;
62 [label="gini = 0.018\nsamples = 1111\nvalue = [0, 8, 2, 0, 0, 0, 0, 0, 0, 0, 1101, 0]"] ;
61 -> 62 ;
63 [label="gini = 0.0\nsamples = 26\nvalue = [0, 0, 0, 0, 0, 0, 0, 0, 0, 0, 26, 0]"] ;
61 -> 63 ;
64 [label="Minimum Pressure <= 1004.5\ngini = 0.024\nsamples = 752\nvalue = [0, 0, 9, 0, 0, 0, 0, 0, 0, 0, 743, 0]"] ;
60 -> 64 ;
65 [label="Minimum Pressure <= 1003.5\ngini = 0.136\nsamples = 82\nvalue = [0, 0, 6, 0, 0, 0, 0, 0, 0, 0, 76, 0]"] ;
64 -> 65 ;
66 [label="Minimum Pressure <= 1002.5\ngini = 0.091\nsamples = 42\nvalue = [0, 0, 2, 0, 0, 0, 0, 0, 0, 0, 40, 0]"] ;
65 -> 66 ;
67 [label="gini = 0.117\nsamples = 16\nvalue = [0, 0, 1, 0, 0, 0, 0, 0, 0, 0, 15, 0]"] ;
66 -> 67 ;
68 [label="gini = 0.074\nsamples = 26\nvalue = [0, 0, 1, 0, 0, 0, 0, 0, 0, 0, 25, 0]"] ;
66 -> 68 ;
69 [label="gini = 0.18\nsamples = 40\nvalue = [0, 0, 4, 0, 0, 0, 0, 0, 0, 0, 36, 0]"] ;
65 -> 69 ;
70 [label="Minimum Pressure <= 1006.5\ngini = 0.009\nsamples = 670\nvalue = [0, 0, 3, 0, 0, 0, 0, 0, 0, 0, 667, 0]"] ;
64 -> 70 ;
71 [label="Minimum Pressure <= 1005.5\ngini = 0.016\nsamples = 243\nvalue = [0, 0, 2, 0, 0, 0, 0, 0, 0, 0, 241, 0]"] ;
70 -> 71 ;
72 [label="gini = 0.018\nsamples = 110\nvalue = [0, 0, 1, 0, 0, 0, 0, 0, 0, 0, 109, 0]"] ;
71 -> 72 ;
73 [label="gini = 0.015\nsamples = 133\nvalue = [0, 0, 1, 0, 0, 0, 0, 0, 0, 0, 132, 0]"] ;
71 -> 73 ;
74 [label="Minimum Pressure <= 1008.5\ngini = 0.005\nsamples = 427\nvalue = [0, 0, 1, 0, 0, 0, 0, 0, 0, 0, 426, 0]"] ;
70 -> 74 ;
75 [label="gini = 0.0\nsamples = 267\nvalue = [0, 0, 0, 0, 0, 0, 0, 0, 0, 0, 267, 0]"] ;
74 -> 75 ;
76 [label="gini = 0.012\nsamples = 160\nvalue = [0, 0, 1, 0, 0, 0, 0, 0, 0, 0, 159, 0]"] ;
74 -> 76 ;
77 [label="gini = 0.089\nsamples = 43\nvalue = [0, 0, 2, 0, 0, 0, 0, 0, 0, 0, 41, 0]"] ;
59 -> 77 ;
78 [label="Minimum Pressure <= 1013.0\ngini = 0.41\nsamples = 19\nvalue = [0, 0, 1, 0, 0, 4, 0, 0, 0, 0, 14, 0]"] ;
58 -> 78 ;
79 [label="Minimum Pressure <= 1011.5\ngini = 0.346\nsamples = 18\nvalue = [0, 0, 0, 0, 0, 4, 0, 0, 0, 0, 14, 0]"] ;
78 -> 79 ;
80 [label="gini = 0.444\nsamples = 3\nvalue = [0, 0, 0, 0, 0, 1, 0, 0, 0, 0, 2, 0]"] ;
79 -> 80 ;
81 [label="gini = 0.32\nsamples = 15\nvalue = [0, 0, 0, 0, 0, 3, 0, 0, 0, 0, 12, 0]"] ;
79 -> 81 ;
82 [label="gini = 0.0\nsamples = 1\nvalue = [0, 0, 1, 0, 0, 0, 0, 0, 0, 0, 0, 0]"] ;
78 -> 82 ;
83 [label="Maximum Wind <= 27.5\ngini = 0.375\nsamples = 4\nvalue = [0, 0, 3, 0, 0, 0, 0, 0, 0, 0, 1, 0]"] ;
35 -> 83 ;
84 [label="Minimum Pressure <= 1016.5\ngini = 0.5\nsamples = 2\nvalue = [0, 0, 1, 0, 0, 0, 0, 0, 0, 0, 1, 0]"] ;
83 -> 84 ;
85 [label="gini = 0.0\nsamples = 1\nvalue = [0, 0, 1, 0, 0, 0, 0, 0, 0, 0, 0, 0]"] ;
84 -> 85 ;
86 [label="gini = 0.0\nsamples = 1\nvalue = [0, 0, 0, 0, 0, 0, 0, 0, 0, 0, 1, 0]"] ;
84 -> 86 ;
87 [label="gini = 0.0\nsamples = 2\nvalue = [0, 0, 2, 0, 0, 0, 0, 0, 0, 0, 0, 0]"] ;
83 -> 87 ;
88 [label="Maximum Wind <= 27.5\ngini = 0.554\nsamples = 2107\nvalue = [150, 0, 13, 0, 0, 1168, 2, 3, 0, 0, 771, 0]"] ;
2 -> 88 ;
89 [label="Maximum Wind <= 22.5\ngini = 0.413\nsamples = 1369\nvalue = [145, 0, 5, 0, 0, 1020, 2, 2, 0, 0, 195, 0]"] ;
88 -> 89 ;
90 [label="Minimum Pressure <= 1011.5\ngini = 0.253\nsamples = 525\nvalue = [65, 0, 0, 0, 0, 449, 0, 0, 0, 0, 11, 0]"] ;
89 -> 90 ;
91 [label="Minimum Pressure <= 1006.5\ngini = 0.266\nsamples = 480\nvalue = [64, 0, 0, 0, 0, 406, 0, 0, 0, 0, 10, 0]"] ;
90 -> 91 ;
92 [label="Minimum Pressure <= 1004.5\ngini = 0.085\nsamples = 45\nvalue = [2, 0, 0, 0, 0, 43, 0, 0, 0, 0, 0, 0]"] ;
91 -> 92 ;
93 [label="Minimum Pressure <= 1003.5\ngini = 0.48\nsamples = 5\nvalue = [2, 0, 0, 0, 0, 3, 0, 0, 0, 0, 0, 0]"] ;
92 -> 93 ;
94 [label="gini = 0.5\nsamples = 2\nvalue = [1, 0, 0, 0, 0, 1, 0, 0, 0, 0, 0, 0]"] ;
93 -> 94 ;
95 [label="gini = 0.444\nsamples = 3\nvalue = [1, 0, 0, 0, 0, 2, 0, 0, 0, 0, 0, 0]"] ;
93 -> 95 ;
96 [label="gini = 0.0\nsamples = 40\nvalue = [0, 0, 0, 0, 0, 40, 0, 0, 0, 0, 0, 0]"] ;
92 -> 96 ;
97 [label="Minimum Pressure <= 1007.5\ngini = 0.283\nsamples = 435\nvalue = [62, 0, 0, 0, 0, 363, 0, 0, 0, 0, 10, 0]"] ;
91 -> 97 ;
98 [label="Maximum Wind <= 17.5\ngini = 0.439\nsamples = 66\nvalue = [18, 0, 0, 0, 0, 46, 0, 0, 0, 0, 2, 0]"] ;
97 -> 98 ;
99 [label="gini = 0.444\nsamples = 3\nvalue = [1, 0, 0, 0, 0, 2, 0, 0, 0, 0, 0, 0]"] ;
98 -> 99 ;
100 [label="gini = 0.438\nsamples = 63\nvalue = [17, 0, 0, 0, 0, 44, 0, 0, 0, 0, 2, 0]"] ;
98 -> 100 ;
101 [label="Minimum Pressure <= 1008.5\ngini = 0.247\nsamples = 369\nvalue = [44, 0, 0, 0, 0, 317, 0, 0, 0, 0, 8, 0]"] ;
97 -> 101 ;
102 [label="Maximum Wind <= 17.5\ngini = 0.09\nsamples = 86\nvalue = [3, 0, 0, 0, 0, 82, 0, 0, 0, 0, 1, 0]"] ;
101 -> 102 ;
103 [label="gini = 0.0\nsamples = 9\nvalue = [0, 0, 0, 0, 0, 9, 0, 0, 0, 0, 0, 0]"] ;
102 -> 103 ;
104 [label="gini = 0.1\nsamples = 77\nvalue = [3, 0, 0, 0, 0, 73, 0, 0, 0, 0, 1, 0]"] ;
102 -> 104 ;
105 [label="Minimum Pressure <= 1009.5\ngini = 0.289\nsamples = 283\nvalue = [41, 0, 0, 0, 0, 235, 0, 0, 0, 0, 7, 0]"] ;
101 -> 105 ;
106 [label="Maximum Wind <= 17.5\ngini = 0.322\nsamples = 132\nvalue = [24, 0, 0, 0, 0, 106, 0, 0, 0, 0, 2, 0]"] ;
105 -> 106 ;
107 [label="gini = 0.337\nsamples = 14\nvalue = [3, 0, 0, 0, 0, 11, 0, 0, 0, 0, 0, 0]"] ;
106 -> 107 ;
108 [label="gini = 0.32\nsamples = 118\nvalue = [21, 0, 0, 0, 0, 95, 0, 0, 0, 0, 2, 0]"] ;
106 -> 108 ;
109 [label="Minimum Pressure <= 1010.5\ngini = 0.256\nsamples = 151\nvalue = [17, 0, 0, 0, 0, 129, 0, 0, 0, 0, 5, 0]"] ;
105 -> 109 ;
110 [label="Maximum Wind <= 17.5\ngini = 0.203\nsamples = 106\nvalue = [11, 0, 0, 0, 0, 94, 0, 0, 0, 0, 1, 0]"] ;
109 -> 110 ;
111 [label="gini = 0.272\nsamples = 13\nvalue = [1, 0, 0, 0, 0, 11, 0, 0, 0, 0, 1, 0]"] ;
110 -> 111 ;
112 [label="gini = 0.192\nsamples = 93\nvalue = [10, 0, 0, 0, 0, 83, 0, 0, 0, 0, 0, 0]"] ;
110 -> 112 ;
113 [label="Maximum Wind <= 17.5\ngini = 0.369\nsamples = 45\nvalue = [6, 0, 0, 0, 0, 35, 0, 0, 0, 0, 4, 0]"] ;
109 -> 113 ;
114 [label="gini = 0.0\nsamples = 10\nvalue = [0, 0, 0, 0, 0, 10, 0, 0, 0, 0, 0, 0]"] ;
113 -> 114 ;
115 [label="gini = 0.447\nsamples = 35\nvalue = [6, 0, 0, 0, 0, 25, 0, 0, 0, 0, 4, 0]"] ;
113 -> 115 ;
116 [label="Minimum Pressure <= 1014.5\ngini = 0.086\nsamples = 45\nvalue = [1, 0, 0, 0, 0, 43, 0, 0, 0, 0, 1, 0]"] ;
90 -> 116 ;
117 [label="Maximum Wind <= 17.5\ngini = 0.048\nsamples = 41\nvalue = [1, 0, 0, 0, 0, 40, 0, 0, 0, 0, 0, 0]"] ;
116 -> 117 ;
118 [label="Minimum Pressure <= 1012.5\ngini = 0.18\nsamples = 10\nvalue = [1, 0, 0, 0, 0, 9, 0, 0, 0, 0, 0, 0]"] ;
117 -> 118 ;
119 [label="gini = 0.198\nsamples = 9\nvalue = [1, 0, 0, 0, 0, 8, 0, 0, 0, 0, 0, 0]"] ;
118 -> 119 ;
120 [label="gini = 0.0\nsamples = 1\nvalue = [0, 0, 0, 0, 0, 1, 0, 0, 0, 0, 0, 0]"] ;
118 -> 120 ;
121 [label="gini = 0.0\nsamples = 31\nvalue = [0, 0, 0, 0, 0, 31, 0, 0, 0, 0, 0, 0]"] ;
117 -> 121 ;
122 [label="Maximum Wind <= 17.5\ngini = 0.375\nsamples = 4\nvalue = [0, 0, 0, 0, 0, 3, 0, 0, 0, 0, 1, 0]"] ;
116 -> 122 ;
123 [label="gini = 0.0\nsamples = 1\nvalue = [0, 0, 0, 0, 0, 1, 0, 0, 0, 0, 0, 0]"] ;
122 -> 123 ;
124 [label="gini = 0.444\nsamples = 3\nvalue = [0, 0, 0, 0, 0, 2, 0, 0, 0, 0, 1, 0]"] ;
122 -> 124 ;
125 [label="Minimum Pressure <= 1007.5\ngini = 0.486\nsamples = 844\nvalue = [80, 0, 5, 0, 0, 571, 2, 2, 0, 0, 184, 0]"] ;
89 -> 125 ;
126 [label="Minimum Pressure <= 1003.5\ngini = 0.491\nsamples = 354\nvalue = [3, 0, 5, 0, 0, 221, 1, 2, 0, 0, 122, 0]"] ;
125 -> 126 ;
127 [label="Minimum Pressure <= 1001.5\ngini = 0.617\nsamples = 16\nvalue = [3, 0, 0, 0, 0, 5, 0, 0, 0, 0, 8, 0]"] ;
126 -> 127 ;
128 [label="Minimum Pressure <= 1000.5\ngini = 0.375\nsamples = 4\nvalue = [0, 0, 0, 0, 0, 1, 0, 0, 0, 0, 3, 0]"] ;
127 -> 128 ;
129 [label="gini = 0.444\nsamples = 3\nvalue = [0, 0, 0, 0, 0, 1, 0, 0, 0, 0, 2, 0]"] ;
128 -> 129 ;
130 [label="gini = 0.0\nsamples = 1\nvalue = [0, 0, 0, 0, 0, 0, 0, 0, 0, 0, 1, 0]"] ;
128 -> 130 ;
131 [label="Minimum Pressure <= 1002.5\ngini = 0.653\nsamples = 12\nvalue = [3, 0, 0, 0, 0, 4, 0, 0, 0, 0, 5, 0]"] ;
127 -> 131 ;
132 [label="gini = 0.444\nsamples = 3\nvalue = [2, 0, 0, 0, 0, 1, 0, 0, 0, 0, 0, 0]"] ;
131 -> 132 ;
133 [label="gini = 0.568\nsamples = 9\nvalue = [1, 0, 0, 0, 0, 3, 0, 0, 0, 0, 5, 0]"] ;
131 -> 133 ;
134 [label="Minimum Pressure <= 1004.5\ngini = 0.478\nsamples = 338\nvalue = [0, 0, 5, 0, 0, 216, 1, 2, 0, 0, 114, 0]"] ;
126 -> 134 ;
135 [label="gini = 0.583\nsamples = 26\nvalue = [0, 0, 2, 0, 0, 15, 0, 2, 0, 0, 7, 0]"] ;
134 -> 135 ;
136 [label="Minimum Pressure <= 1006.5\ngini = 0.467\nsamples = 312\nvalue = [0, 0, 3, 0, 0, 201, 1, 0, 0, 0, 107, 0]"] ;
134 -> 136 ;
137 [label="Minimum Pressure <= 1005.5\ngini = 0.492\nsamples = 149\nvalue = [0, 0, 3, 0, 0, 92, 1, 0, 0, 0, 53, 0]"] ;
136 -> 137 ;
138 [label="gini = 0.465\nsamples = 52\nvalue = [0, 0, 1, 0, 0, 34, 0, 0, 0, 0, 17, 0]"] ;
137 -> 138 ;
139 [label="gini = 0.504\nsamples = 97\nvalue = [0, 0, 2, 0, 0, 58, 1, 0, 0, 0, 36, 0]"] ;
137 -> 139 ;
140 [label="gini = 0.443\nsamples = 163\nvalue = [0, 0, 0, 0, 0, 109, 0, 0, 0, 0, 54, 0]"] ;
136 -> 140 ;
141 [label="Minimum Pressure <= 1008.5\ngini = 0.449\nsamples = 490\nvalue = [77, 0, 0, 0, 0, 350, 1, 0, 0, 0, 62, 0]"] ;
125 -> 141 ;
142 [label="gini = 0.49\nsamples = 207\nvalue = [27, 0, 0, 0, 0, 140, 1, 0, 0, 0, 39, 0]"] ;
141 -> 142 ;
143 [label="Minimum Pressure <= 1011.5\ngini = 0.412\nsamples = 283\nvalue = [50, 0, 0, 0, 0, 210, 0, 0, 0, 0, 23, 0]"] ;
141 -> 143 ;
144 [label="Minimum Pressure <= 1009.5\ngini = 0.405\nsamples = 267\nvalue = [50, 0, 0, 0, 0, 199, 0, 0, 0, 0, 18, 0]"] ;
143 -> 144 ;
145 [label="gini = 0.388\nsamples = 161\nvalue = [22, 0, 0, 0, 0, 123, 0, 0, 0, 0, 16, 0]"] ;
144 -> 145 ;
146 [label="Minimum Pressure <= 1010.5\ngini = 0.416\nsamples = 106\nvalue = [28, 0, 0, 0, 0, 76, 0, 0, 0, 0, 2, 0]"] ;
144 -> 146 ;
147 [label="gini = 0.387\nsamples = 82\nvalue = [20, 0, 0, 0, 0, 61, 0, 0, 0, 0, 1, 0]"] ;
146 -> 147 ;
148 [label="gini = 0.497\nsamples = 24\nvalue = [8, 0, 0, 0, 0, 15, 0, 0, 0, 0, 1, 0]"] ;
146 -> 148 ;
149 [label="Minimum Pressure <= 1012.5\ngini = 0.43\nsamples = 16\nvalue = [0, 0, 0, 0, 0, 11, 0, 0, 0, 0, 5, 0]"] ;
143 -> 149 ;
150 [label="gini = 0.346\nsamples = 9\nvalue = [0, 0, 0, 0, 0, 7, 0, 0, 0, 0, 2, 0]"] ;
149 -> 150 ;
151 [label="Minimum Pressure <= 1014.0\ngini = 0.49\nsamples = 7\nvalue = [0, 0, 0, 0, 0, 4, 0, 0, 0, 0, 3, 0]"] ;
149 -> 151 ;
152 [label="gini = 0.5\nsamples = 6\nvalue = [0, 0, 0, 0, 0, 3, 0, 0, 0, 0, 3, 0]"] ;
151 -> 152 ;
153 [label="gini = 0.0\nsamples = 1\nvalue = [0, 0, 0, 0, 0, 1, 0, 0, 0, 0, 0, 0]"] ;
151 -> 153 ;
154 [label="Minimum Pressure <= 1018.0\ngini = 0.35\nsamples = 738\nvalue = [5, 0, 8, 0, 0, 148, 0, 1, 0, 0, 576, 0]"] ;
88 -> 154 ;
155 [label="Minimum Pressure <= 1007.5\ngini = 0.34\nsamples = 732\nvalue = [5, 0, 2, 0, 0, 148, 0, 1, 0, 0, 576, 0]"] ;
154 -> 155 ;
156 [label="Minimum Pressure <= 987.5\ngini = 0.297\nsamples = 612\nvalue = [1, 0, 2, 0, 0, 106, 0, 1, 0, 0, 502, 0]"] ;
155 -> 156 ;
157 [label="gini = 0.0\nsamples = 1\nvalue = [0, 0, 1, 0, 0, 0, 0, 0, 0, 0, 0, 0]"] ;
156 -> 157 ;
158 [label="Minimum Pressure <= 1006.5\ngini = 0.295\nsamples = 611\nvalue = [1, 0, 1, 0, 0, 106, 0, 1, 0, 0, 502, 0]"] ;
156 -> 158 ;
159 [label="Minimum Pressure <= 999.5\ngini = 0.275\nsamples = 484\nvalue = [1, 0, 1, 0, 0, 76, 0, 1, 0, 0, 405, 0]"] ;
158 -> 159 ;
160 [label="Minimum Pressure <= 996.5\ngini = 0.48\nsamples = 10\nvalue = [0, 0, 0, 0, 0, 4, 0, 0, 0, 0, 6, 0]"] ;
159 -> 160 ;
161 [label="gini = 0.0\nsamples = 1\nvalue = [0, 0, 0, 0, 0, 0, 0, 0, 0, 0, 1, 0]"] ;
160 -> 161 ;
162 [label="Minimum Pressure <= 998.5\ngini = 0.494\nsamples = 9\nvalue = [0, 0, 0, 0, 0, 4, 0, 0, 0, 0, 5, 0]"] ;
160 -> 162 ;
163 [label="gini = 0.5\nsamples = 4\nvalue = [0, 0, 0, 0, 0, 2, 0, 0, 0, 0, 2, 0]"] ;
162 -> 163 ;
164 [label="gini = 0.48\nsamples = 5\nvalue = [0, 0, 0, 0, 0, 2, 0, 0, 0, 0, 3, 0]"] ;
162 -> 164 ;
165 [label="Minimum Pressure <= 1001.5\ngini = 0.268\nsamples = 474\nvalue = [1, 0, 1, 0, 0, 72, 0, 1, 0, 0, 399, 0]"] ;
159 -> 165 ;
166 [label="Minimum Pressure <= 1000.5\ngini = 0.153\nsamples = 36\nvalue = [0, 0, 0, 0, 0, 3, 0, 0, 0, 0, 33, 0]"] ;
165 -> 166 ;
167 [label="gini = 0.208\nsamples = 17\nvalue = [0, 0, 0, 0, 0, 2, 0, 0, 0, 0, 15, 0]"] ;
166 -> 167 ;
168 [label="gini = 0.1\nsamples = 19\nvalue = [0, 0, 0, 0, 0, 1, 0, 0, 0, 0, 18, 0]"] ;
166 -> 168 ;
169 [label="Minimum Pressure <= 1002.5\ngini = 0.277\nsamples = 438\nvalue = [1, 0, 1, 0, 0, 69, 0, 1, 0, 0, 366, 0]"] ;
165 -> 169 ;
170 [label="gini = 0.401\nsamples = 27\nvalue = [0, 0, 0, 0, 0, 6, 0, 1, 0, 0, 20, 0]"] ;
169 -> 170 ;
171 [label="Minimum Pressure <= 1003.5\ngini = 0.268\nsamples = 411\nvalue = [1, 0, 1, 0, 0, 63, 0, 0, 0, 0, 346, 0]"] ;
169 -> 171 ;
172 [label="gini = 0.323\nsamples = 36\nvalue = [0, 0, 1, 0, 0, 6, 0, 0, 0, 0, 29, 0]"] ;
171 -> 172 ;
173 [label="Minimum Pressure <= 1005.5\ngini = 0.262\nsamples = 375\nvalue = [1, 0, 0, 0, 0, 57, 0, 0, 0, 0, 317, 0]"] ;
171 -> 173 ;
174 [label="Minimum Pressure <= 1004.5\ngini = 0.248\nsamples = 186\nvalue = [0, 0, 0, 0, 0, 27, 0, 0, 0, 0, 159, 0]"] ;
173 -> 174 ;
175 [label="gini = 0.274\nsamples = 61\nvalue = [0, 0, 0, 0, 0, 10, 0, 0, 0, 0, 51, 0]"] ;
174 -> 175 ;
176 [label="gini = 0.235\nsamples = 125\nvalue = [0, 0, 0, 0, 0, 17, 0, 0, 0, 0, 108, 0]"] ;
174 -> 176 ;
177 [label="gini = 0.276\nsamples = 189\nvalue = [1, 0, 0, 0, 0, 30, 0, 0, 0, 0, 158, 0]"] ;
173 -> 177 ;
178 [label="gini = 0.361\nsamples = 127\nvalue = [0, 0, 0, 0, 0, 30, 0, 0, 0, 0, 97, 0]"] ;
158 -> 178 ;
179 [label="Minimum Pressure <= 1013.0\ngini = 0.496\nsamples = 120\nvalue = [4, 0, 0, 0, 0, 42, 0, 0, 0, 0, 74, 0]"] ;
155 -> 179 ;
180 [label="Minimum Pressure <= 1009.5\ngini = 0.491\nsamples = 118\nvalue = [4, 0, 0, 0, 0, 40, 0, 0, 0, 0, 74, 0]"] ;
179 -> 180 ;
181 [label="Minimum Pressure <= 1008.5\ngini = 0.484\nsamples = 85\nvalue = [1, 0, 0, 0, 0, 32, 0, 0, 0, 0, 52, 0]"] ;
180 -> 181 ;
182 [label="gini = 0.447\nsamples = 59\nvalue = [1, 0, 0, 0, 0, 18, 0, 0, 0, 0, 40, 0]"] ;
181 -> 182 ;
183 [label="gini = 0.497\nsamples = 26\nvalue = [0, 0, 0, 0, 0, 14, 0, 0, 0, 0, 12, 0]"] ;
181 -> 183 ;
184 [label="Minimum Pressure <= 1010.5\ngini = 0.489\nsamples = 33\nvalue = [3, 0, 0, 0, 0, 8, 0, 0, 0, 0, 22, 0]"] ;
180 -> 184 ;
185 [label="gini = 0.442\nsamples = 25\nvalue = [3, 0, 0, 0, 0, 4, 0, 0, 0, 0, 18, 0]"] ;
184 -> 185 ;
186 [label="Minimum Pressure <= 1011.5\ngini = 0.5\nsamples = 8\nvalue = [0, 0, 0, 0, 0, 4, 0, 0, 0, 0, 4, 0]"] ;
184 -> 186 ;
187 [label="gini = 0.0\nsamples = 3\nvalue = [0, 0, 0, 0, 0, 3, 0, 0, 0, 0, 0, 0]"] ;
186 -> 187 ;
188 [label="gini = 0.32\nsamples = 5\nvalue = [0, 0, 0, 0, 0, 1, 0, 0, 0, 0, 4, 0]"] ;
186 -> 188 ;
189 [label="gini = 0.0\nsamples = 2\nvalue = [0, 0, 0, 0, 0, 2, 0, 0, 0, 0, 0, 0]"] ;
179 -> 189 ;
190 [label="gini = 0.0\nsamples = 6\nvalue = [0, 0, 6, 0, 0, 0, 0, 0, 0, 0, 0, 0]"] ;
154 -> 190 ;
191 [label="Minimum Pressure <= 1012.5\ngini = 0.02\nsamples = 7106\nvalue = [0, 18, 22, 0, 0, 22, 2, 0, 6, 0, 0, 7036]"] ;
1 -> 191 ;
192 [label="Moderate Wind SW <= 85.0\ngini = 0.019\nsamples = 7102\nvalue = [0, 18, 19, 0, 0, 22, 2, 0, 6, 0, 0, 7035]"] ;
191 -> 192 ;
193 [label="Low Wind SE <= 247.5\ngini = 0.018\nsamples = 7100\nvalue = [0, 18, 19, 0, 0, 22, 2, 0, 4, 0, 0, 7035]"] ;
192 -> 193 ;
194 [label="Moderate Wind NE <= 100.0\ngini = 0.018\nsamples = 7099\nvalue = [0, 18, 18, 0, 0, 22, 2, 0, 4, 0, 0, 7035]"] ;
193 -> 194 ;
195 [label="High Wind NE <= -499.5\ngini = 0.018\nsamples = 7097\nvalue = [0, 18, 18, 0, 0, 21, 2, 0, 4, 0, 0, 7034]"] ;
194 -> 195 ;
196 [label="Minimum Pressure <= -12.0\ngini = 0.012\nsamples = 5626\nvalue = [0, 18, 17, 0, 0, 0, 0, 0, 0, 0, 0, 5591]"] ;
195 -> 196 ;
197 [label="Maximum Wind <= 47.5\ngini = 0.018\nsamples = 3826\nvalue = [0, 17, 17, 0, 0, 0, 0, 0, 0, 0, 0, 3792]"] ;
196 -> 197 ;
198 [label="Maximum Wind <= 42.5\ngini = 0.022\nsamples = 2984\nvalue = [0, 17, 16, 0, 0, 0, 0, 0, 0, 0, 0, 2951]"] ;
197 -> 198 ;
199 [label="Maximum Wind <= 37.5\ngini = 0.011\nsamples = 1085\nvalue = [0, 5, 1, 0, 0, 0, 0, 0, 0, 0, 0, 1079]"] ;
198 -> 199 ;
200 [label="gini = 0.015\nsamples = 678\nvalue = [0, 4, 1, 0, 0, 0, 0, 0, 0, 0, 0, 673]"] ;
199 -> 200 ;
201 [label="gini = 0.005\nsamples = 407\nvalue = [0, 1, 0, 0, 0, 0, 0, 0, 0, 0, 0, 406]"] ;
199 -> 201 ;
202 [label="gini = 0.028\nsamples = 1899\nvalue = [0, 12, 15, 0, 0, 0, 0, 0, 0, 0, 0, 1872]"] ;
198 -> 202 ;
203 [label="Maximum Wind <= 52.5\ngini = 0.002\nsamples = 842\nvalue = [0, 0, 1, 0, 0, 0, 0, 0, 0, 0, 0, 841]"] ;
197 -> 203 ;
204 [label="gini = 0.0\nsamples = 328\nvalue = [0, 0, 0, 0, 0, 0, 0, 0, 0, 0, 0, 328]"] ;
203 -> 204 ;
205 [label="Maximum Wind <= 57.5\ngini = 0.004\nsamples = 514\nvalue = [0, 0, 1, 0, 0, 0, 0, 0, 0, 0, 0, 513]"] ;
203 -> 205 ;
206 [label="gini = 0.007\nsamples = 274\nvalue = [0, 0, 1, 0, 0, 0, 0, 0, 0, 0, 0, 273]"] ;
205 -> 206 ;
207 [label="gini = 0.0\nsamples = 240\nvalue = [0, 0, 0, 0, 0, 0, 0, 0, 0, 0, 0, 240]"] ;
205 -> 207 ;
208 [label="Minimum Pressure <= 1003.5\ngini = 0.001\nsamples = 1800\nvalue = [0, 1, 0, 0, 0, 0, 0, 0, 0, 0, 0, 1799]"] ;
196 -> 208 ;
209 [label="gini = 0.0\nsamples = 1423\nvalue = [0, 0, 0, 0, 0, 0, 0, 0, 0, 0, 0, 1423]"] ;
208 -> 209 ;
210 [label="Maximum Wind <= 37.5\ngini = 0.005\nsamples = 377\nvalue = [0, 1, 0, 0, 0, 0, 0, 0, 0, 0, 0, 376]"] ;
208 -> 210 ;
211 [label="gini = 0.0\nsamples = 313\nvalue = [0, 0, 0, 0, 0, 0, 0, 0, 0, 0, 0, 313]"] ;
210 -> 211 ;
212 [label="Minimum Pressure <= 1004.5\ngini = 0.031\nsamples = 64\nvalue = [0, 1, 0, 0, 0, 0, 0, 0, 0, 0, 0, 63]"] ;
210 -> 212 ;
213 [label="Maximum Wind <= 42.5\ngini = 0.067\nsamples = 29\nvalue = [0, 1, 0, 0, 0, 0, 0, 0, 0, 0, 0, 28]"] ;
212 -> 213 ;
214 [label="gini = 0.087\nsamples = 22\nvalue = [0, 1, 0, 0, 0, 0, 0, 0, 0, 0, 0, 21]"] ;
213 -> 214 ;
215 [label="gini = 0.0\nsamples = 7\nvalue = [0, 0, 0, 0, 0, 0, 0, 0, 0, 0, 0, 7]"] ;
213 -> 215 ;
216 [label="gini = 0.0\nsamples = 35\nvalue = [0, 0, 0, 0, 0, 0, 0, 0, 0, 0, 0, 35]"] ;
212 -> 216 ;
217 [label="Maximum Wind <= 37.5\ngini = 0.037\nsamples = 1471\nvalue = [0, 0, 1, 0, 0, 21, 2, 0, 4, 0, 0, 1443]"] ;
195 -> 217 ;
218 [label="Minimum Pressure <= 987.0\ngini = 0.099\nsamples = 386\nvalue = [0, 0, 1, 0, 0, 16, 2, 0, 1, 0, 0, 366]"] ;
217 -> 218 ;
219 [label="gini = 0.0\nsamples = 1\nvalue = [0, 0, 1, 0, 0, 0, 0, 0, 0, 0, 0, 0]"] ;
218 -> 219 ;
220 [label="Minimum Pressure <= 995.5\ngini = 0.095\nsamples = 385\nvalue = [0, 0, 0, 0, 0, 16, 2, 0, 1, 0, 0, 366]"] ;
218 -> 220 ;
221 [label="Low Wind NW <= 7.5\ngini = 0.5\nsamples = 2\nvalue = [0, 0, 0, 0, 0, 1, 0, 0, 0, 0, 0, 1]"] ;
220 -> 221 ;
222 [label="gini = 0.0\nsamples = 1\nvalue = [0, 0, 0, 0, 0, 1, 0, 0, 0, 0, 0, 0]"] ;
221 -> 222 ;
223 [label="gini = 0.0\nsamples = 1\nvalue = [0, 0, 0, 0, 0, 0, 0, 0, 0, 0, 0, 1]"] ;
221 -> 223 ;
224 [label="Low Wind SE <= 5.0\ngini = 0.09\nsamples = 383\nvalue = [0, 0, 0, 0, 0, 15, 2, 0, 1, 0, 0, 365]"] ;
220 -> 224 ;
225 [label="Minimum Pressure <= 1002.5\ngini = 0.159\nsamples = 115\nvalue = [0, 0, 0, 0, 0, 10, 0, 0, 0, 0, 0, 105]"] ;
224 -> 225 ;
226 [label="Minimum Pressure <= 1001.5\ngini = 0.337\nsamples = 14\nvalue = [0, 0, 0, 0, 0, 3, 0, 0, 0, 0, 0, 11]"] ;
225 -> 226 ;
227 [label="gini = 0.0\nsamples = 6\nvalue = [0, 0, 0, 0, 0, 0, 0, 0, 0, 0, 0, 6]"] ;
226 -> 227 ;
228 [label="Low Wind NW <= 65.0\ngini = 0.469\nsamples = 8\nvalue = [0, 0, 0, 0, 0, 3, 0, 0, 0, 0, 0, 5]"] ;
226 -> 228 ;
229 [label="Low Wind NE <= 35.0\ngini = 0.48\nsamples = 5\nvalue = [0, 0, 0, 0, 0, 3, 0, 0, 0, 0, 0, 2]"] ;
228 -> 229 ;
230 [label="Low Wind NW <= 35.0\ngini = 0.444\nsamples = 3\nvalue = [0, 0, 0, 0, 0, 1, 0, 0, 0, 0, 0, 2]"] ;
229 -> 230 ;
231 [label="Low Wind NE <= 15.0\ngini = 0.5\nsamples = 2\nvalue = [0, 0, 0, 0, 0, 1, 0, 0, 0, 0, 0, 1]"] ;
230 -> 231 ;
232 [label="gini = 0.0\nsamples = 1\nvalue = [0, 0, 0, 0, 0, 1, 0, 0, 0, 0, 0, 0]"] ;
231 -> 232 ;
233 [label="gini = 0.0\nsamples = 1\nvalue = [0, 0, 0, 0, 0, 0, 0, 0, 0, 0, 0, 1]"] ;
231 -> 233 ;
234 [label="gini = 0.0\nsamples = 1\nvalue = [0, 0, 0, 0, 0, 0, 0, 0, 0, 0, 0, 1]"] ;
230 -> 234 ;
235 [label="gini = 0.0\nsamples = 2\nvalue = [0, 0, 0, 0, 0, 2, 0, 0, 0, 0, 0, 0]"] ;
229 -> 235 ;
236 [label="gini = 0.0\nsamples = 3\nvalue = [0, 0, 0, 0, 0, 0, 0, 0, 0, 0, 0, 3]"] ;
228 -> 236 ;
237 [label="Low Wind NW <= 72.5\ngini = 0.129\nsamples = 101\nvalue = [0, 0, 0, 0, 0, 7, 0, 0, 0, 0, 0, 94]"] ;
225 -> 237 ;
238 [label="Minimum Pressure <= 1007.5\ngini = 0.101\nsamples = 94\nvalue = [0, 0, 0, 0, 0, 5, 0, 0, 0, 0, 0, 89]"] ;
237 -> 238 ;
239 [label="Low Wind NE <= 80.0\ngini = 0.083\nsamples = 92\nvalue = [0, 0, 0, 0, 0, 4, 0, 0, 0, 0, 0, 88]"] ;
238 -> 239 ;
240 [label="Low Wind NE <= 37.5\ngini = 0.067\nsamples = 87\nvalue = [0, 0, 0, 0, 0, 3, 0, 0, 0, 0, 0, 84]"] ;
239 -> 240 ;
241 [label="Low Wind NE <= 32.5\ngini = 0.139\nsamples = 40\nvalue = [0, 0, 0, 0, 0, 3, 0, 0, 0, 0, 0, 37]"] ;
240 -> 241 ;
242 [label="Low Wind SW <= 10.0\ngini = 0.097\nsamples = 39\nvalue = [0, 0, 0, 0, 0, 2, 0, 0, 0, 0, 0, 37]"] ;
241 -> 242 ;
243 [label="Minimum Pressure <= 1004.5\ngini = 0.172\nsamples = 21\nvalue = [0, 0, 0, 0, 0, 2, 0, 0, 0, 0, 0, 19]"] ;
242 -> 243 ;
244 [label="gini = 0.0\nsamples = 7\nvalue = [0, 0, 0, 0, 0, 0, 0, 0, 0, 0, 0, 7]"] ;
243 -> 244 ;
245 [label="Low Wind NW <= 15.0\ngini = 0.245\nsamples = 14\nvalue = [0, 0, 0, 0, 0, 2, 0, 0, 0, 0, 0, 12]"] ;
243 -> 245 ;
246 [label="gini = 0.0\nsamples = 3\nvalue = [0, 0, 0, 0, 0, 0, 0, 0, 0, 0, 0, 3]"] ;
245 -> 246 ;
247 [label="Minimum Pressure <= 1005.5\ngini = 0.298\nsamples = 11\nvalue = [0, 0, 0, 0, 0, 2, 0, 0, 0, 0, 0, 9]"] ;
245 -> 247 ;
248 [label="Low Wind NW <= 65.0\ngini = 0.346\nsamples = 9\nvalue = [0, 0, 0, 0, 0, 2, 0, 0, 0, 0, 0, 7]"] ;
247 -> 248 ;
249 [label="Low Wind NW <= 45.0\ngini = 0.375\nsamples = 8\nvalue = [0, 0, 0, 0, 0, 2, 0, 0, 0, 0, 0, 6]"] ;
248 -> 249 ;
250 [label="Low Wind NE <= 25.0\ngini = 0.32\nsamples = 5\nvalue = [0, 0, 0, 0, 0, 1, 0, 0, 0, 0, 0, 4]"] ;
249 -> 250 ;
251 [label="gini = 0.0\nsamples = 1\nvalue = [0, 0, 0, 0, 0, 0, 0, 0, 0, 0, 0, 1]"] ;
250 -> 251 ;
252 [label="gini = 0.375\nsamples = 4\nvalue = [0, 0, 0, 0, 0, 1, 0, 0, 0, 0, 0, 3]"] ;
250 -> 252 ;
253 [label="gini = 0.444\nsamples = 3\nvalue = [0, 0, 0, 0, 0, 1, 0, 0, 0, 0, 0, 2]"] ;
249 -> 253 ;
254 [label="gini = 0.0\nsamples = 1\nvalue = [0, 0, 0, 0, 0, 0, 0, 0, 0, 0, 0, 1]"] ;
248 -> 254 ;
255 [label="gini = 0.0\nsamples = 2\nvalue = [0, 0, 0, 0, 0, 0, 0, 0, 0, 0, 0, 2]"] ;
247 -> 255 ;
256 [label="gini = 0.0\nsamples = 18\nvalue = [0, 0, 0, 0, 0, 0, 0, 0, 0, 0, 0, 18]"] ;
242 -> 256 ;
257 [label="gini = 0.0\nsamples = 1\nvalue = [0, 0, 0, 0, 0, 1, 0, 0, 0, 0, 0, 0]"] ;
241 -> 257 ;
258 [label="gini = 0.0\nsamples = 47\nvalue = [0, 0, 0, 0, 0, 0, 0, 0, 0, 0, 0, 47]"] ;
240 -> 258 ;
259 [label="Low Wind NW <= 15.0\ngini = 0.32\nsamples = 5\nvalue = [0, 0, 0, 0, 0, 1, 0, 0, 0, 0, 0, 4]"] ;
239 -> 259 ;
260 [label="Low Wind NE <= 95.0\ngini = 0.5\nsamples = 2\nvalue = [0, 0, 0, 0, 0, 1, 0, 0, 0, 0, 0, 1]"] ;
259 -> 260 ;
261 [label="gini = 0.0\nsamples = 1\nvalue = [0, 0, 0, 0, 0, 1, 0, 0, 0, 0, 0, 0]"] ;
260 -> 261 ;
262 [label="gini = 0.0\nsamples = 1\nvalue = [0, 0, 0, 0, 0, 0, 0, 0, 0, 0, 0, 1]"] ;
260 -> 262 ;
263 [label="gini = 0.0\nsamples = 3\nvalue = [0, 0, 0, 0, 0, 0, 0, 0, 0, 0, 0, 3]"] ;
259 -> 263 ;
264 [label="Low Wind NW <= 20.0\ngini = 0.5\nsamples = 2\nvalue = [0, 0, 0, 0, 0, 1, 0, 0, 0, 0, 0, 1]"] ;
238 -> 264 ;
265 [label="gini = 0.0\nsamples = 1\nvalue = [0, 0, 0, 0, 0, 1, 0, 0, 0, 0, 0, 0]"] ;
264 -> 265 ;
266 [label="gini = 0.0\nsamples = 1\nvalue = [0, 0, 0, 0, 0, 0, 0, 0, 0, 0, 0, 1]"] ;
264 -> 266 ;
267 [label="Low Wind NE <= 85.0\ngini = 0.408\nsamples = 7\nvalue = [0, 0, 0, 0, 0, 2, 0, 0, 0, 0, 0, 5]"] ;
237 -> 267 ;
268 [label="gini = 0.0\nsamples = 2\nvalue = [0, 0, 0, 0, 0, 2, 0, 0, 0, 0, 0, 0]"] ;
267 -> 268 ;
269 [label="gini = 0.0\nsamples = 5\nvalue = [0, 0, 0, 0, 0, 0, 0, 0, 0, 0, 0, 5]"] ;
267 -> 269 ;
270 [label="Low Wind NE <= 37.5\ngini = 0.058\nsamples = 268\nvalue = [0, 0, 0, 0, 0, 5, 2, 0, 1, 0, 0, 260]"] ;
224 -> 270 ;
271 [label="gini = 0.0\nsamples = 114\nvalue = [0, 0, 0, 0, 0, 0, 0, 0, 0, 0, 0, 114]"] ;
270 -> 271 ;
272 [label="Minimum Pressure <= 1003.5\ngini = 0.1\nsamples = 154\nvalue = [0, 0, 0, 0, 0, 5, 2, 0, 1, 0, 0, 146]"] ;
270 -> 272 ;
273 [label="Low Wind SE <= 25.0\ngini = 0.188\nsamples = 69\nvalue = [0, 0, 0, 0, 0, 4, 2, 0, 1, 0, 0, 62]"] ;
272 -> 273 ;
274 [label="Low Wind SW <= 20.0\ngini = 0.5\nsamples = 2\nvalue = [0, 0, 0, 0, 0, 1, 0, 0, 0, 0, 0, 1]"] ;
273 -> 274 ;
275 [label="gini = 0.0\nsamples = 1\nvalue = [0, 0, 0, 0, 0, 1, 0, 0, 0, 0, 0, 0]"] ;
274 -> 275 ;
276 [label="gini = 0.0\nsamples = 1\nvalue = [0, 0, 0, 0, 0, 0, 0, 0, 0, 0, 0, 1]"] ;
274 -> 276 ;
277 [label="Low Wind SW <= 47.5\ngini = 0.168\nsamples = 67\nvalue = [0, 0, 0, 0, 0, 3, 2, 0, 1, 0, 0, 61]"] ;
273 -> 277 ;
278 [label="Low Wind SW <= 17.5\ngini = 0.269\nsamples = 40\nvalue = [0, 0, 0, 0, 0, 3, 2, 0, 1, 0, 0, 34]"] ;
277 -> 278 ;
279 [label="gini = 0.0\nsamples = 21\nvalue = [0, 0, 0, 0, 0, 0, 0, 0, 0, 0, 0, 21]"] ;
278 -> 279 ;
280 [label="Low Wind NW <= 10.0\ngini = 0.493\nsamples = 19\nvalue = [0, 0, 0, 0, 0, 3, 2, 0, 1, 0, 0, 13]"] ;
278 -> 280 ;
281 [label="Minimum Pressure <= 1001.5\ngini = 0.5\nsamples = 4\nvalue = [0, 0, 0, 0, 0, 0, 2, 0, 0, 0, 0, 2]"] ;
280 -> 281 ;
282 [label="gini = 0.0\nsamples = 2\nvalue = [0, 0, 0, 0, 0, 0, 0, 0, 0, 0, 0, 2]"] ;
281 -> 282 ;
283 [label="gini = 0.0\nsamples = 2\nvalue = [0, 0, 0, 0, 0, 0, 2, 0, 0, 0, 0, 0]"] ;
281 -> 283 ;
284 [label="Minimum Pressure <= 1000.5\ngini = 0.418\nsamples = 15\nvalue = [0, 0, 0, 0, 0, 3, 0, 0, 1, 0, 0, 11]"] ;
280 -> 284 ;
285 [label="gini = 0.0\nsamples = 5\nvalue = [0, 0, 0, 0, 0, 0, 0, 0, 0, 0, 0, 5]"] ;
284 -> 285 ;
286 [label="Low Wind SW <= 42.5\ngini = 0.54\nsamples = 10\nvalue = [0, 0, 0, 0, 0, 3, 0, 0, 1, 0, 0, 6]"] ;
284 -> 286 ;
287 [label="Low Wind SW <= 25.0\ngini = 0.444\nsamples = 9\nvalue = [0, 0, 0, 0, 0, 3, 0, 0, 0, 0, 0, 6]"] ;
286 -> 287 ;
288 [label="gini = 0.0\nsamples = 1\nvalue = [0, 0, 0, 0, 0, 1, 0, 0, 0, 0, 0, 0]"] ;
287 -> 288 ;
289 [label="Low Wind NW <= 55.0\ngini = 0.375\nsamples = 8\nvalue = [0, 0, 0, 0, 0, 2, 0, 0, 0, 0, 0, 6]"] ;
287 -> 289 ;
290 [label="Low Wind SE <= 47.5\ngini = 0.444\nsamples = 6\nvalue = [0, 0, 0, 0, 0, 2, 0, 0, 0, 0, 0, 4]"] ;
289 -> 290 ;
291 [label="Low Wind NW <= 42.5\ngini = 0.32\nsamples = 5\nvalue = [0, 0, 0, 0, 0, 1, 0, 0, 0, 0, 0, 4]"] ;
290 -> 291 ;
292 [label="Low Wind SW <= 35.0\ngini = 0.5\nsamples = 2\nvalue = [0, 0, 0, 0, 0, 1, 0, 0, 0, 0, 0, 1]"] ;
291 -> 292 ;
293 [label="gini = 0.0\nsamples = 1\nvalue = [0, 0, 0, 0, 0, 1, 0, 0, 0, 0, 0, 0]"] ;
292 -> 293 ;
294 [label="gini = 0.0\nsamples = 1\nvalue = [0, 0, 0, 0, 0, 0, 0, 0, 0, 0, 0, 1]"] ;
292 -> 294 ;
295 [label="gini = 0.0\nsamples = 3\nvalue = [0, 0, 0, 0, 0, 0, 0, 0, 0, 0, 0, 3]"] ;
291 -> 295 ;
296 [label="gini = 0.0\nsamples = 1\nvalue = [0, 0, 0, 0, 0, 1, 0, 0, 0, 0, 0, 0]"] ;
290 -> 296 ;
297 [label="gini = 0.0\nsamples = 2\nvalue = [0, 0, 0, 0, 0, 0, 0, 0, 0, 0, 0, 2]"] ;
289 -> 297 ;
298 [label="gini = 0.0\nsamples = 1\nvalue = [0, 0, 0, 0, 0, 0, 0, 0, 1, 0, 0, 0]"] ;
286 -> 298 ;
299 [label="gini = 0.0\nsamples = 27\nvalue = [0, 0, 0, 0, 0, 0, 0, 0, 0, 0, 0, 27]"] ;
277 -> 299 ;
300 [label="Low Wind NW <= 15.0\ngini = 0.023\nsamples = 85\nvalue = [0, 0, 0, 0, 0, 1, 0, 0, 0, 0, 0, 84]"] ;
272 -> 300 ;
301 [label="Low Wind SE <= 42.5\ngini = 0.117\nsamples = 16\nvalue = [0, 0, 0, 0, 0, 1, 0, 0, 0, 0, 0, 15]"] ;
300 -> 301 ;
302 [label="Low Wind NE <= 55.0\ngini = 0.32\nsamples = 5\nvalue = [0, 0, 0, 0, 0, 1, 0, 0, 0, 0, 0, 4]"] ;
301 -> 302 ;
303 [label="gini = 0.0\nsamples = 4\nvalue = [0, 0, 0, 0, 0, 0, 0, 0, 0, 0, 0, 4]"] ;
302 -> 303 ;
304 [label="gini = 0.0\nsamples = 1\nvalue = [0, 0, 0, 0, 0, 1, 0, 0, 0, 0, 0, 0]"] ;
302 -> 304 ;
305 [label="gini = 0.0\nsamples = 11\nvalue = [0, 0, 0, 0, 0, 0, 0, 0, 0, 0, 0, 11]"] ;
301 -> 305 ;
306 [label="gini = 0.0\nsamples = 69\nvalue = [0, 0, 0, 0, 0, 0, 0, 0, 0, 0, 0, 69]"] ;
300 -> 306 ;
307 [label="Maximum Wind <= 42.5\ngini = 0.015\nsamples = 1085\nvalue = [0, 0, 0, 0, 0, 5, 0, 0, 3, 0, 0, 1077]"] ;
217 -> 307 ;
308 [label="Minimum Pressure <= 991.0\ngini = 0.043\nsamples = 275\nvalue = [0, 0, 0, 0, 0, 5, 0, 0, 1, 0, 0, 269]"] ;
307 -> 308 ;
309 [label="gini = 0.0\nsamples = 1\nvalue = [0, 0, 0, 0, 0, 1, 0, 0, 0, 0, 0, 0]"] ;
308 -> 309 ;
310 [label="Minimum Pressure <= 994.5\ngini = 0.036\nsamples = 274\nvalue = [0, 0, 0, 0, 0, 4, 0, 0, 1, 0, 0, 269]"] ;
308 -> 310 ;
311 [label="Low Wind SW <= 12.5\ngini = 0.375\nsamples = 4\nvalue = [0, 0, 0, 0, 0, 1, 0, 0, 0, 0, 0, 3]"] ;
310 -> 311 ;
312 [label="gini = 0.0\nsamples = 1\nvalue = [0, 0, 0, 0, 0, 1, 0, 0, 0, 0, 0, 0]"] ;
311 -> 312 ;
313 [label="gini = 0.0\nsamples = 3\nvalue = [0, 0, 0, 0, 0, 0, 0, 0, 0, 0, 0, 3]"] ;
311 -> 313 ;
314 [label="Low Wind SW <= 82.5\ngini = 0.029\nsamples = 270\nvalue = [0, 0, 0, 0, 0, 3, 0, 0, 1, 0, 0, 266]"] ;
310 -> 314 ;
315 [label="Minimum Pressure <= 1000.5\ngini = 0.023\nsamples = 259\nvalue = [0, 0, 0, 0, 0, 3, 0, 0, 0, 0, 0, 256]"] ;
314 -> 315 ;
316 [label="Minimum Pressure <= 999.5\ngini = 0.091\nsamples = 42\nvalue = [0, 0, 0, 0, 0, 2, 0, 0, 0, 0, 0, 40]"] ;
315 -> 316 ;
317 [label="gini = 0.0\nsamples = 21\nvalue = [0, 0, 0, 0, 0, 0, 0, 0, 0, 0, 0, 21]"] ;
316 -> 317 ;
318 [label="Low Wind SE <= 77.5\ngini = 0.172\nsamples = 21\nvalue = [0, 0, 0, 0, 0, 2, 0, 0, 0, 0, 0, 19]"] ;
316 -> 318 ;
319 [label="Low Wind SE <= 42.5\ngini = 0.1\nsamples = 19\nvalue = [0, 0, 0, 0, 0, 1, 0, 0, 0, 0, 0, 18]"] ;
318 -> 319 ;
320 [label="Low Wind SW <= 35.0\ngini = 0.32\nsamples = 5\nvalue = [0, 0, 0, 0, 0, 1, 0, 0, 0, 0, 0, 4]"] ;
319 -> 320 ;
321 [label="gini = 0.0\nsamples = 4\nvalue = [0, 0, 0, 0, 0, 0, 0, 0, 0, 0, 0, 4]"] ;
320 -> 321 ;
322 [label="gini = 0.0\nsamples = 1\nvalue = [0, 0, 0, 0, 0, 1, 0, 0, 0, 0, 0, 0]"] ;
320 -> 322 ;
323 [label="gini = 0.0\nsamples = 14\nvalue = [0, 0, 0, 0, 0, 0, 0, 0, 0, 0, 0, 14]"] ;
319 -> 323 ;
324 [label="Low Wind NW <= 35.0\ngini = 0.5\nsamples = 2\nvalue = [0, 0, 0, 0, 0, 1, 0, 0, 0, 0, 0, 1]"] ;
318 -> 324 ;
325 [label="gini = 0.0\nsamples = 1\nvalue = [0, 0, 0, 0, 0, 0, 0, 0, 0, 0, 0, 1]"] ;
324 -> 325 ;
326 [label="gini = 0.0\nsamples = 1\nvalue = [0, 0, 0, 0, 0, 1, 0, 0, 0, 0, 0, 0]"] ;
324 -> 326 ;
327 [label="Minimum Pressure <= 1004.5\ngini = 0.009\nsamples = 217\nvalue = [0, 0, 0, 0, 0, 1, 0, 0, 0, 0, 0, 216]"] ;
315 -> 327 ;
328 [label="gini = 0.0\nsamples = 204\nvalue = [0, 0, 0, 0, 0, 0, 0, 0, 0, 0, 0, 204]"] ;
327 -> 328 ;
329 [label="Low Wind NW <= 15.0\ngini = 0.142\nsamples = 13\nvalue = [0, 0, 0, 0, 0, 1, 0, 0, 0, 0, 0, 12]"] ;
327 -> 329 ;
330 [label="Low Wind SW <= 20.0\ngini = 0.444\nsamples = 3\nvalue = [0, 0, 0, 0, 0, 1, 0, 0, 0, 0, 0, 2]"] ;
329 -> 330 ;
331 [label="gini = 0.0\nsamples = 1\nvalue = [0, 0, 0, 0, 0, 1, 0, 0, 0, 0, 0, 0]"] ;
330 -> 331 ;
332 [label="gini = 0.0\nsamples = 2\nvalue = [0, 0, 0, 0, 0, 0, 0, 0, 0, 0, 0, 2]"] ;
330 -> 332 ;
333 [label="gini = 0.0\nsamples = 10\nvalue = [0, 0, 0, 0, 0, 0, 0, 0, 0, 0, 0, 10]"] ;
329 -> 333 ;
334 [label="Minimum Pressure <= 1000.5\ngini = 0.165\nsamples = 11\nvalue = [0, 0, 0, 0, 0, 0, 0, 0, 1, 0, 0, 10]"] ;
314 -> 334 ;
335 [label="gini = 0.0\nsamples = 9\nvalue = [0, 0, 0, 0, 0, 0, 0, 0, 0, 0, 0, 9]"] ;
334 -> 335 ;
336 [label="Low Wind SE <= 95.0\ngini = 0.5\nsamples = 2\nvalue = [0, 0, 0, 0, 0, 0, 0, 0, 1, 0, 0, 1]"] ;
334 -> 336 ;
337 [label="gini = 0.0\nsamples = 1\nvalue = [0, 0, 0, 0, 0, 0, 0, 0, 1, 0, 0, 0]"] ;
336 -> 337 ;
338 [label="gini = 0.0\nsamples = 1\nvalue = [0, 0, 0, 0, 0, 0, 0, 0, 0, 0, 0, 1]"] ;
336 -> 338 ;
339 [label="Low Wind SW <= 57.5\ngini = 0.005\nsamples = 810\nvalue = [0, 0, 0, 0, 0, 0, 0, 0, 2, 0, 0, 808]"] ;
307 -> 339 ;
340 [label="gini = 0.0\nsamples = 522\nvalue = [0, 0, 0, 0, 0, 0, 0, 0, 0, 0, 0, 522]"] ;
339 -> 340 ;
341 [label="Minimum Pressure <= 997.5\ngini = 0.014\nsamples = 288\nvalue = [0, 0, 0, 0, 0, 0, 0, 0, 2, 0, 0, 286]"] ;
339 -> 341 ;
342 [label="gini = 0.0\nsamples = 220\nvalue = [0, 0, 0, 0, 0, 0, 0, 0, 0, 0, 0, 220]"] ;
341 -> 342 ;
343 [label="Low Wind NE <= 87.5\ngini = 0.057\nsamples = 68\nvalue = [0, 0, 0, 0, 0, 0, 0, 0, 2, 0, 0, 66]"] ;
341 -> 343 ;
344 [label="Minimum Pressure <= 998.5\ngini = 0.031\nsamples = 63\nvalue = [0, 0, 0, 0, 0, 0, 0, 0, 1, 0, 0, 62]"] ;
343 -> 344 ;
345 [label="Low Wind SW <= 67.5\ngini = 0.105\nsamples = 18\nvalue = [0, 0, 0, 0, 0, 0, 0, 0, 1, 0, 0, 17]"] ;
344 -> 345 ;
346 [label="Low Wind NW <= 55.0\ngini = 0.219\nsamples = 8\nvalue = [0, 0, 0, 0, 0, 0, 0, 0, 1, 0, 0, 7]"] ;
345 -> 346 ;
347 [label="gini = 0.0\nsamples = 4\nvalue = [0, 0, 0, 0, 0, 0, 0, 0, 0, 0, 0, 4]"] ;
346 -> 347 ;
348 [label="Low Wind SE <= 52.5\ngini = 0.375\nsamples = 4\nvalue = [0, 0, 0, 0, 0, 0, 0, 0, 1, 0, 0, 3]"] ;
346 -> 348 ;
349 [label="gini = 0.0\nsamples = 2\nvalue = [0, 0, 0, 0, 0, 0, 0, 0, 0, 0, 0, 2]"] ;
348 -> 349 ;
350 [label="Low Wind SE <= 75.0\ngini = 0.5\nsamples = 2\nvalue = [0, 0, 0, 0, 0, 0, 0, 0, 1, 0, 0, 1]"] ;
348 -> 350 ;
351 [label="gini = 0.0\nsamples = 1\nvalue = [0, 0, 0, 0, 0, 0, 0, 0, 1, 0, 0, 0]"] ;
350 -> 351 ;
352 [label="gini = 0.0\nsamples = 1\nvalue = [0, 0, 0, 0, 0, 0, 0, 0, 0, 0, 0, 1]"] ;
350 -> 352 ;
353 [label="gini = 0.0\nsamples = 10\nvalue = [0, 0, 0, 0, 0, 0, 0, 0, 0, 0, 0, 10]"] ;
345 -> 353 ;
354 [label="gini = 0.0\nsamples = 45\nvalue = [0, 0, 0, 0, 0, 0, 0, 0, 0, 0, 0, 45]"] ;
344 -> 354 ;
355 [label="Low Wind SW <= 75.0\ngini = 0.32\nsamples = 5\nvalue = [0, 0, 0, 0, 0, 0, 0, 0, 1, 0, 0, 4]"] ;
343 -> 355 ;
356 [label="gini = 0.0\nsamples = 4\nvalue = [0, 0, 0, 0, 0, 0, 0, 0, 0, 0, 0, 4]"] ;
355 -> 356 ;
357 [label="gini = 0.0\nsamples = 1\nvalue = [0, 0, 0, 0, 0, 0, 0, 0, 1, 0, 0, 0]"] ;
355 -> 357 ;
358 [label="Minimum Pressure <= 984.0\ngini = 0.5\nsamples = 2\nvalue = [0, 0, 0, 0, 0, 1, 0, 0, 0, 0, 0, 1]"] ;
194 -> 358 ;
359 [label="gini = 0.0\nsamples = 1\nvalue = [0, 0, 0, 0, 0, 0, 0, 0, 0, 0, 0, 1]"] ;
358 -> 359 ;
360 [label="gini = 0.0\nsamples = 1\nvalue = [0, 0, 0, 0, 0, 1, 0, 0, 0, 0, 0, 0]"] ;
358 -> 360 ;
361 [label="gini = 0.0\nsamples = 1\nvalue = [0, 0, 1, 0, 0, 0, 0, 0, 0, 0, 0, 0]"] ;
193 -> 361 ;
362 [label="gini = 0.0\nsamples = 2\nvalue = [0, 0, 0, 0, 0, 0, 0, 0, 2, 0, 0, 0]"] ;
192 -> 362 ;
363 [label="Low Wind NW <= -454.5\ngini = 0.375\nsamples = 4\nvalue = [0, 0, 3, 0, 0, 0, 0, 0, 0, 0, 0, 1]"] ;
191 -> 363 ;
364 [label="gini = 0.0\nsamples = 1\nvalue = [0, 0, 0, 0, 0, 0, 0, 0, 0, 0, 0, 1]"] ;
363 -> 364 ;
365 [label="gini = 0.0\nsamples = 3\nvalue = [0, 0, 3, 0, 0, 0, 0, 0, 0, 0, 0, 0]"] ;
363 -> 365 ;
366 [label="High Wind NE <= 37.5\ngini = 0.009\nsamples = 4751\nvalue = [0, 5, 9, 4730, 1, 0, 0, 0, 0, 5, 0, 1]"] ;
0 -> 366 [labeldistance=2.5, labelangle=-45, headlabel="False"] ;
367 [label="Moderate Wind NW <= 67.5\ngini = 0.007\nsamples = 4596\nvalue = [0, 5, 9, 4581, 0, 0, 0, 0, 0, 0, 0, 1]"] ;
366 -> 367 ;
368 [label="Maximum Wind <= 76.0\ngini = 0.006\nsamples = 4571\nvalue = [0, 5, 9, 4557, 0, 0, 0, 0, 0, 0, 0, 0]"] ;
367 -> 368 ;
369 [label="Minimum Pressure <= -18.5\ngini = 0.012\nsamples = 2311\nvalue = [0, 5, 9, 2297, 0, 0, 0, 0, 0, 0, 0, 0]"] ;
368 -> 369 ;
370 [label="Maximum Wind <= 72.5\ngini = 0.019\nsamples = 1499\nvalue = [0, 5, 9, 1485, 0, 0, 0, 0, 0, 0, 0, 0]"] ;
369 -> 370 ;
371 [label="Maximum Wind <= 67.5\ngini = 0.011\nsamples = 536\nvalue = [0, 3, 0, 533, 0, 0, 0, 0, 0, 0, 0, 0]"] ;
370 -> 371 ;
372 [label="gini = 0.013\nsamples = 315\nvalue = [0, 2, 0, 313, 0, 0, 0, 0, 0, 0, 0, 0]"] ;
371 -> 372 ;
373 [label="gini = 0.009\nsamples = 221\nvalue = [0, 1, 0, 220, 0, 0, 0, 0, 0, 0, 0, 0]"] ;
371 -> 373 ;
374 [label="gini = 0.023\nsamples = 963\nvalue = [0, 2, 9, 952, 0, 0, 0, 0, 0, 0, 0, 0]"] ;
370 -> 374 ;
375 [label="gini = 0.0\nsamples = 812\nvalue = [0, 0, 0, 812, 0, 0, 0, 0, 0, 0, 0, 0]"] ;
369 -> 375 ;
376 [label="gini = 0.0\nsamples = 2260\nvalue = [0, 0, 0, 2260, 0, 0, 0, 0, 0, 0, 0, 0]"] ;
368 -> 376 ;
377 [label="High Wind SE <= 7.5\ngini = 0.077\nsamples = 25\nvalue = [0, 0, 0, 24, 0, 0, 0, 0, 0, 0, 0, 1]"] ;
367 -> 377 ;
378 [label="Minimum Pressure <= 986.5\ngini = 0.444\nsamples = 3\nvalue = [0, 0, 0, 2, 0, 0, 0, 0, 0, 0, 0, 1]"] ;
377 -> 378 ;
379 [label="gini = 0.0\nsamples = 1\nvalue = [0, 0, 0, 0, 0, 0, 0, 0, 0, 0, 0, 1]"] ;
378 -> 379 ;
380 [label="gini = 0.0\nsamples = 2\nvalue = [0, 0, 0, 2, 0, 0, 0, 0, 0, 0, 0, 0]"] ;
378 -> 380 ;
381 [label="gini = 0.0\nsamples = 22\nvalue = [0, 0, 0, 22, 0, 0, 0, 0, 0, 0, 0, 0]"] ;
377 -> 381 ;
382 [label="High Wind SE <= 22.5\ngini = 0.075\nsamples = 155\nvalue = [0, 0, 0, 149, 1, 0, 0, 0, 0, 5, 0, 0]"] ;
366 -> 382 ;
383 [label="Minimum Pressure <= 928.5\ngini = 0.494\nsamples = 9\nvalue = [0, 0, 0, 5, 0, 0, 0, 0, 0, 4, 0, 0]"] ;
382 -> 383 ;
384 [label="gini = 0.0\nsamples = 4\nvalue = [0, 0, 0, 0, 0, 0, 0, 0, 0, 4, 0, 0]"] ;
383 -> 384 ;
385 [label="gini = 0.0\nsamples = 5\nvalue = [0, 0, 0, 5, 0, 0, 0, 0, 0, 0, 0, 0]"] ;
383 -> 385 ;
386 [label="High Wind SE <= 52.5\ngini = 0.027\nsamples = 146\nvalue = [0, 0, 0, 144, 1, 0, 0, 0, 0, 1, 0, 0]"] ;
382 -> 386 ;
387 [label="gini = 0.0\nsamples = 115\nvalue = [0, 0, 0, 115, 0, 0, 0, 0, 0, 0, 0, 0]"] ;
386 -> 387 ;
388 [label="High Wind NW <= 42.5\ngini = 0.123\nsamples = 31\nvalue = [0, 0, 0, 29, 1, 0, 0, 0, 0, 1, 0, 0]"] ;
386 -> 388 ;
389 [label="Low Wind NW <= 112.5\ngini = 0.56\nsamples = 5\nvalue = [0, 0, 0, 3, 1, 0, 0, 0, 0, 1, 0, 0]"] ;
388 -> 389 ;
390 [label="gini = 0.0\nsamples = 1\nvalue = [0, 0, 0, 0, 0, 0, 0, 0, 0, 1, 0, 0]"] ;
389 -> 390 ;
391 [label="Maximum Wind <= 110.0\ngini = 0.375\nsamples = 4\nvalue = [0, 0, 0, 3, 1, 0, 0, 0, 0, 0, 0, 0]"] ;
389 -> 391 ;
392 [label="gini = 0.0\nsamples = 1\nvalue = [0, 0, 0, 0, 1, 0, 0, 0, 0, 0, 0, 0]"] ;
391 -> 392 ;
393 [label="gini = 0.0\nsamples = 3\nvalue = [0, 0, 0, 3, 0, 0, 0, 0, 0, 0, 0, 0]"] ;
391 -> 393 ;
394 [label="gini = 0.0\nsamples = 26\nvalue = [0, 0, 0, 26, 0, 0, 0, 0, 0, 0, 0, 0]"] ;
388 -> 394 ;
}